%YAML:1.0
---
opencv_ml_svm:
   format: 3
   svmType: C_SVC
   kernel:
      type: RBF
      gamma: 5.0625000000000009e-01
   C: 3.1250000000000000e+02
   term_criteria: { epsilon:1.1920928955078125e-07, iterations:1000 }
   var_count: 6
   class_count: 2
   class_labels: !!opencv-matrix
      rows: 2
      cols: 1
      dt: i
      data: [ 0, 1 ]
   sv_total: 341
   support_vectors:
      - [ -1.38780206e-01, 1.65919781e+01, -6.29237235e-01,
          1.66851921e+01, -4.43058699e-01, 1.54059067e+01 ]
      - [ -3.70947778e-01, 1.40044689e+01, 9.38295186e-01,
          3.68592873e+01, 7.24086523e-01, 4.28437767e+01 ]
      - [ -2.70677148e-03, 1.16239756e-01, 9.37178040e+00,
          1.48494214e-01, 1.80667615e+00, 4.81130838e+00 ]
      - [ 2.70166755e-01, 6.11353540e+00, 2.54335940e-01, 1.39341412e+01,
          -3.25253785e-01, 7.56634092e+00 ]
      - [ -6.41374588e-02, 6.23616099e-01, -9.49331951e+00,
          7.24736601e-02, 1.41296041e+00, 3.35060453e+00 ]
      - [ 9.44599152e+00, 1.70431539e-01, 4.18882012e-01, 9.68658626e-01,
          1.05562770e+00, 4.51472569e+00 ]
      - [ 1.08041439e+01, 4.32910843e+01, -1.55859962e-01,
          7.59410715e+00, 9.84429121e-01, 7.79831543e+01 ]
      - [ -3.31784785e-02, 1.58576717e+01, -4.90555286e-01,
          1.89488640e+01, -7.40568638e-01, 1.95591316e+01 ]
      - [ 1.07301502e+01, 4.38974915e+01, -6.06635772e-02,
          8.28206158e+00, 1.26981735e+00, 5.72241707e+01 ]
      - [ 4.79004085e-01, 8.91006052e-01, 9.50934410e+00, 1.07878089e-01,
          1.51505275e-02, 4.51420355e+00 ]
      - [ 1.04771137e-01, 3.78274465e+00, 1.20030612e-01, 1.47633591e+01,
          -3.04542720e-01, 8.89842033e+00 ]
      - [ -2.47100010e+01, 3.04168282e+01, -1.18322678e+01,
          7.98783035e+01, -1.02232132e+01, 1.02955009e+02 ]
      - [ 1.07319374e+01, 3.34330215e+01, -4.36256319e-01,
          6.26314545e+00, 9.06569421e-01, 4.49105415e+01 ]
      - [ 2.97209620e-01, 7.12853336e+00, 3.17219615e-01, 1.61326885e+01,
          -5.06787419e-01, 9.60211563e+00 ]
      - [ 4.17751282e-01, 7.16479254e+00, 9.41348076e+00, 1.68182545e+01,
          1.46687746e+00, 1.04516010e+01 ]
      - [ 5.04344463e-01, 9.11036849e-01, -9.38062572e+00,
          9.45511833e-02, 1.72523499e+00, 3.93785620e+00 ]
      - [ 1.09160170e-01, 5.64763403e+00, 1.23461194e-01, 4.11017799e+00,
          -2.65460163e-01, 1.14313674e+00 ]
      - [ 2.75434256e-01, 6.87595844e+00, 9.45386028e+00, 1.65409698e+01,
          1.38122916e+00, 9.36117840e+00 ]
      - [ -5.88666834e-02, 1.23249989e+01, -1.00041237e+01,
          2.00911140e+01, 1.10548997e+00, 1.35255966e+01 ]
      - [ -1.28934413e-01, 2.68303299e+00, 6.33030608e-02,
          1.08879910e+01, -3.29584241e-01, 1.09195328e+00 ]
      - [ 1.98998375e+01, 1.92615833e+01, -4.08857574e+01,
          1.57716017e+01, -2.53364925e+01, 6.40479355e+01 ]
      - [ -2.02944946e+01, 2.06805058e+01, 8.70549469e+01,
          6.67815304e+00, 6.07585106e+01, 4.91165314e+01 ]
      - [ 6.59201086e-01, 1.85191818e+02, -4.23120346e+01,
          2.80530033e+01, 3.58413386e+00, 1.21464455e+02 ]
      - [ -1.74936562e+01, 4.09517908e+00, -3.87157860e+01,
          1.41511478e+01, -2.00459309e+01, 1.61292206e+02 ]
      - [ 3.64148647e-01, 4.56491756e+00, 9.40074635e+00, 1.49812822e+01,
          1.34484172e+00, 1.01653605e+01 ]
      - [ 1.08033562e+01, 4.13704643e+01, 9.68604013e-02, 9.64320278e+00,
          1.15460455e+00, 5.89802094e+01 ]
      - [ -2.47338715e+01, 1.85645199e+01, -1.86340389e+01,
          3.85109863e+01, 1.54101200e+01, 1.04870461e+02 ]
      - [ 9.27675343e+00, 1.36603132e-01, 1.81461525e+00, 7.28865623e-01,
          5.90008736e-01, 5.60582399e+00 ]
      - [ 2.45156407e-01, 5.74339581e+00, 2.12885514e-01, 1.45543890e+01,
          -3.14783037e-01, 9.78092861e+00 ]
      - [ 2.29364514e-01, 7.72451735e+00, 1.55335546e-01, 3.16641188e+00,
          -3.35410506e-01, 1.11938119e+00 ]
      - [ 2.40958691e-01, 1.38130474e+01, -1.00671587e+01,
          1.91152515e+01, 1.17817521e+00, 1.55520163e+01 ]
      - [ -3.02674264e-01, 1.89485016e+01, -7.16818392e-01,
          2.10583839e+01, -4.24658120e-01, 1.93513317e+01 ]
      - [ 1.43928707e-01, 9.27650183e-03, 4.66876835e-01, 1.69839472e-01,
          5.25709033e-01, 2.71477371e-01 ]
      - [ 9.59787667e-02, 7.63920927e+00, 1.37311742e-01, 1.83478317e+01,
          -4.31895196e-01, 9.69437218e+00 ]
      - [ 2.72573441e-01, 6.52873373e+00, 1.65553167e-01, 1.85592823e+01,
          -5.80729902e-01, 9.09250259e+00 ]
      - [ 7.99078882e-01, 3.24656067e+01, -3.21870327e-01,
          8.75801182e+00, -3.98751408e-01, 4.23627052e+01 ]
      - [ 7.20078170e-01, 3.02085552e+01, -8.40264142e-01,
          1.12737627e+01, -2.17850879e-01, 4.52122002e+01 ]
      - [ -3.95520747e-01, 9.97600937e+00, 7.07188487e-01,
          2.82451477e+01, 7.03029990e-01, 3.66058044e+01 ]
      - [ 3.76965553e-01, 5.22683144e+00, 2.01056898e-01, 1.02707233e+01,
          -2.12680787e-01, 5.85582972e+00 ]
      - [ -5.97591847e-02, 1.74140453e+01, -7.69756913e-01,
          1.57605953e+01, -3.80273789e-01, 1.72513638e+01 ]
      - [ -1.68120632e+01, 5.49239397e+00, -3.84179344e+01,
          1.69729595e+01, -2.09172707e+01, 1.67833130e+02 ]
      - [ 4.58716691e-01, 7.51779554e-03, 5.29510915e-01, 1.21640209e-02,
          5.83634973e-01, 9.28690005e-03 ]
      - [ 3.32459360e-01, 6.95799923e+00, 9.37583065e+00, 1.81523972e+01,
          1.54394972e+00, 1.02105122e+01 ]
      - [ -2.04035187e+00, 1.17424141e+02, -3.87252541e+01,
          2.98515587e+01, -2.97236824e+01, 1.36679306e+02 ]
      - [ 1.34360090e-01, 1.27606421e+01, -1.00127840e+01,
          1.80946178e+01, 1.26855302e+00, 1.38605337e+01 ]
      - [ 2.21016660e-01, 6.46847773e+00, 1.53153852e-01, 2.03621578e+01,
          -5.24287403e-01, 1.09848719e+01 ]
      - [ 1.69232547e-01, 8.86714077e+00, 1.70183405e-01, 2.00986118e+01,
          -4.52767551e-01, 9.92195415e+00 ]
      - [ -4.71948087e-02, 4.78626394e+00, 1.96099415e-01,
          4.10937166e+00, -1.85818821e-01, 1.14267468e+00 ]
      - [ 3.33625346e-01, 3.95224142e+00, 9.48485947e+00, 1.34464579e+01,
          1.34130025e+00, 9.38172340e+00 ]
      - [ 9.87920702e-01, 4.31329689e+01, -4.58556592e-01,
          1.24438562e+01, -2.16091290e-01, 6.71354904e+01 ]
      - [ -1.50784999e-01, 1.49199772e+01, -5.51164389e-01,
          1.93441486e+01, -4.11635518e-01, 1.67282677e+01 ]
      - [ -1.64197445e-01, 1.77300835e+01, -7.31332064e-01,
          2.18126793e+01, -4.12819386e-01, 2.01694202e+01 ]
      - [ 9.47845650e+00, 1.56632721e-01, 6.46387160e-01, 7.84138143e-01,
          1.37457228e+00, 3.08121085e+00 ]
      - [ -9.52276140e-02, 1.38247862e+01, -9.91752148e+00,
          2.13902416e+01, 1.20171058e+00, 1.33245764e+01 ]
      - [ 1.51482627e-01, 5.40777731e+00, 1.05976641e-01, 1.88558216e+01,
          -3.54193360e-01, 1.09254723e+01 ]
      - [ 5.91187596e-01, 3.29988240e-03, -2.64390498e-01,
          7.60117965e-03, -2.95504600e-01, 3.24606407e-03 ]
      - [ -5.64667940e-01, 3.93568575e-02, -2.27405787e-01,
          1.68939717e-02, -6.75362766e-01, 5.33344895e-02 ]
      - [ 3.38609844e-01, 4.72661591e+00, 9.43467426e+00, 1.76786404e+01,
          1.37144268e+00, 1.13027430e+01 ]
      - [ 2.18982100e-02, 2.79113364e+00, -6.40986487e-02,
          4.08262920e+00, -1.35276318e-01, 7.23601520e-01 ]
      - [ -1.95275456e-01, 8.84685993e+00, -9.82090950e+00,
          1.62688637e+01, 1.18994129e+00, 1.19258375e+01 ]
      - [ -2.82683879e-01, 1.75807934e+01, -6.81087077e-01,
          1.64644394e+01, -5.30654907e-01, 1.88961678e+01 ]
      - [ -2.27160081e-01, 2.82543445e+00, 3.88470031e-02,
          8.71933365e+00, -2.98475176e-01, 1.02576125e+00 ]
      - [ 1.27724618e-01, 1.45554505e-02, -2.98705008e-02,
          3.81641567e-01, -6.29945844e-02, 2.77759582e-01 ]
      - [ 4.05110806e-01, 7.44775581e+00, 2.74918914e-01, 1.44262486e+01,
          -2.80734003e-01, 8.12114239e+00 ]
      - [ 2.94186294e-01, 5.14879656e+00, 1.09774739e-01, 1.22329950e+01,
          -2.32329786e-01, 6.01974010e+00 ]
      - [ -3.08154766e-02, 1.58528471e+00, -7.94276446e-02,
          1.66062307e+00, 1.08760022e-01, 8.42761457e-01 ]
      - [ -2.98962176e-01, 1.21220961e+01, 6.97206378e-01,
          3.15674706e+01, 5.88628531e-01, 3.62215767e+01 ]
      - [ 1.18131317e-01, 6.05331612e+00, 9.40482330e+00, 1.21964598e+01,
          1.48866045e+00, 8.52078533e+00 ]
      - [ 7.87561178e-01, 3.43442535e+01, -3.86680931e-01,
          1.11858902e+01, -1.40652373e-01, 4.70386581e+01 ]
      - [ 6.35966659e-01, 7.27218715e-03, -3.71389501e-02,
          3.64674255e-03, -4.57295682e-03, 6.46265550e-03 ]
      - [ 3.78563643e-01, 6.78217649e+00, 2.18156651e-01, 1.57926178e+01,
          -3.65409613e-01, 9.43093109e+00 ]
      - [ -3.60262692e-01, 4.29144001e+00, -6.00524902e-01,
          9.37790680e+00, -5.13465405e-01, 2.44596791e+00 ]
      - [ 1.68310910e-01, 1.23966961e+01, -9.99589729e+00,
          1.61102867e+01, 1.16254783e+00, 1.28246689e+01 ]
      - [ -4.19664345e+01, 5.21063089e+00, 2.08030844e+00,
          1.78671551e+01, 1.15959368e+01, 5.48548164e+01 ]
      - [ -1.78285003e-01, 2.18270569e+01, -7.93558300e-01,
          2.46296787e+01, -4.69030648e-01, 2.34379959e+01 ]
      - [ 1.10177755e+00, 7.32633066e+00, 9.85165977e+00, 3.37534790e+01,
          5.06838620e-01, 3.23496056e+01 ]
      - [ 1.60315490e+00, 9.72652555e-01, 9.41691780e+00, 7.88046271e-02,
          -5.30265272e-01, 3.58931112e+00 ]
      - [ -1.57086268e-01, 1.80149384e+01, -5.90297699e-01,
          1.78912449e+01, -5.16899526e-01, 1.64398193e+01 ]
      - [ -2.18816578e-01, 3.35648823e+00, -8.82108957e-02,
          1.37329311e+01, -3.56147707e-01, 1.11499083e+00 ]
      - [ -9.67879687e-03, 1.55725994e+01, -4.97072220e-01,
          1.42499332e+01, -3.78877819e-01, 1.31579437e+01 ]
      - [ 1.06481791e-01, 1.10987173e-02, -6.43279374e-01,
          8.43103826e-02, -5.94491959e-01, 7.90895820e-02 ]
      - [ 2.24782944e+01, 4.20985699e+00, -4.18073196e+01,
          6.50030041e+00, -2.15412159e+01, 4.49346504e+01 ]
      - [ -2.58563548e-01, 1.60458965e+01, -7.50505626e-01,
          1.65865326e+01, -4.59756881e-01, 1.79551430e+01 ]
      - [ -2.01093044e+01, 1.00728798e+01, 8.34297028e+01,
          4.71498919e+00, 5.34096413e+01, 3.56970520e+01 ]
      - [ 2.07859017e-02, 5.85476589e+00, 2.64484853e-01, 2.44623375e+00,
          -2.43963927e-01, 8.76594543e-01 ]
      - [ -5.15595749e-02, 3.53025389e+00, -3.35477144e-02,
          1.92764664e+00, 5.69363981e-02, 3.01250529e+00 ]
      - [ 2.03009412e-01, 1.44582577e-02, -2.52927005e-01,
          2.89437652e-01, -3.08957219e-01, 3.94072056e-01 ]
      - [ 3.63276660e-01, 1.15253134e-02, 5.93526840e-01, 1.25876283e-02,
          6.29855156e-01, 7.94641580e-03 ]
      - [ -5.06105185e+00, 1.67608299e+01, -3.65903931e+01,
          3.47975960e+01, -3.16312218e+01, 1.16408035e+02 ]
      - [ 9.51151276e+00, 2.17169113e+01, -4.57070999e+01,
          1.53198481e+01, 7.23894024e+00, 8.59528351e+01 ]
      - [ 8.97513580e+00, 7.00007477e+01, 8.59095154e+01, 3.21508293e+01,
          4.15155945e+01, 1.33939545e+02 ]
      - [ -5.80990601e+00, 1.59062185e+01, -3.85804634e+01,
          3.55103149e+01, -3.27982063e+01, 1.22111008e+02 ]
      - [ -3.08244014e+00, 1.64481983e+01, -3.74861221e+01,
          3.49736519e+01, -3.34063530e+01, 1.01760994e+02 ]
      - [ 1.28127499e+01, 1.55562469e+02, -4.11793671e+01,
          2.34370461e+01, -2.70659847e+01, 1.03346428e+02 ]
      - [ 8.38602930e-02, 7.97144137e-03, 4.27929938e-01, 3.03977609e-01,
          3.57432693e-01, 3.60268950e-01 ]
      - [ 1.76969588e-01, 2.36672275e-02, 4.78976518e-01, 2.34907091e-01,
          4.37959522e-01, 2.59301871e-01 ]
      - [ -1.05568242e+00, 2.88302822e+01, 8.22946854e+01,
          8.20113525e+01, 3.76415939e+01, 7.64802933e+01 ]
      - [ -1.84032383e+01, 7.86129379e+00, -3.76106758e+01,
          3.77089167e+00, -3.28448486e+00, 1.67214142e+02 ]
      - [ 1.06230974e+01, 1.42267427e+01, -3.91160812e+01,
          2.94259472e+01, -3.25251808e+01, 6.60971375e+01 ]
      - [ 7.18631744e+00, 3.47980385e+01, -4.03147202e+01,
          3.07027473e+01, -3.42621078e+01, 7.73957977e+01 ]
      - [ -4.08387899e+00, 1.74565239e+01, -3.77600174e+01,
          3.70594025e+01, -3.24880867e+01, 1.13766640e+02 ]
      - [ -2.00282598e+00, 1.66754349e+02, -4.01638374e+01,
          2.43612442e+01, -2.89169655e+01, 1.49445160e+02 ]
      - [ -4.52241373e+00, 1.40198393e+01, -3.68092728e+01,
          3.33947067e+01, -3.24434700e+01, 1.03499832e+02 ]
      - [ -4.19276571e+00, 2.92769104e+02, 7.94655685e+01,
          2.21298561e+01, 4.67784081e+01, 8.65670547e+01 ]
      - [ -1.32848339e+01, 9.29666138e+00, -3.84191475e+01,
          2.44727650e+01, -2.64971943e+01, 1.49686966e+02 ]
      - [ 2.07716961e+01, 1.23141880e+01, 8.27661667e+01, 1.75750904e+01,
          5.29804611e+01, 9.08002625e+01 ]
      - [ 2.25057945e+01, 1.46409340e+01, 8.63092575e+01, 1.04278803e+01,
          5.78258858e+01, 1.11777031e+02 ]
      - [ -5.81899261e+00, 1.50307665e+01, -3.78609085e+01,
          3.53200111e+01, -3.30784302e+01, 1.18121948e+02 ]
      - [ 2.17744465e+01, 1.42478056e+01, 8.17983932e+01, 1.66198788e+01,
          5.57339287e+01, 9.95645752e+01 ]
      - [ -1.60762355e-01, 3.66764641e+00, -1.19632430e-01,
          7.88268709e+00, 4.02880937e-01, 8.40866280e+00 ]
      - [ 8.14955235e-01, 1.23419514e+01, -2.84008607e-02,
          9.11713409e+00, 6.02635974e-03, 1.78922405e+01 ]
      - [ 2.25537376e+01, 1.47162800e+01, 8.56276627e+01, 1.23769827e+01,
          5.71615906e+01, 1.17984810e+02 ]
      - [ 5.73545992e-01, 6.16076849e-02, 1.50101870e-01, 2.46570278e-02,
          6.46150038e-02, 1.88750759e-01 ]
      - [ -1.52984238e+01, 2.03593292e+01, -3.98454323e+01,
          1.94913712e+01, -2.37409668e+01, 1.76729630e+02 ]
      - [ -1.88242226e+01, 8.86464977e+00, 7.84505539e+01,
          7.35312510e+00, 4.99131393e+01, 2.61866169e+01 ]
      - [ 1.36051998e+01, 6.84880371e+01, 8.08569260e+01, 3.88379936e+01,
          4.51369705e+01, 1.08941673e+02 ]
      - [ 2.05710793e+01, 1.10347719e+01, 8.39739380e+01, 1.87447796e+01,
          5.26078758e+01, 1.10604012e+02 ]
      - [ -5.21898794e+00, 6.13287506e+01, -3.40991440e+01,
          3.60718231e+01, -3.04140511e+01, 1.24085869e+02 ]
      - [ -1.77231712e+01, 7.97298384e+00, -3.73048706e+01,
          5.88761187e+00, -3.39015651e+00, 1.68794510e+02 ]
      - [ -2.70457315e+00, 1.80163479e+01, -3.58082237e+01,
          3.56265678e+01, -3.33865204e+01, 1.00176903e+02 ]
      - [ 2.48905220e+01, 5.63166733e+01, 9.06925278e+01, 1.07362846e+02,
          6.12323380e+01, 1.90918472e+02 ]
      - [ -7.89782715e+00, 1.35074005e+01, -3.77319832e+01,
          3.11163635e+01, -3.12550087e+01, 1.20209206e+02 ]
      - [ 2.25407925e+01, 1.47011042e+01, 8.60787277e+01, 1.14022264e+01,
          5.82419357e+01, 1.15984932e+02 ]
      - [ 2.21449203e+01, 1.34607439e+01, 8.44479218e+01, 1.22046909e+01,
          5.70708733e+01, 1.20867180e+02 ]
      - [ -1.88237114e+01, 2.85324574e+01, 8.17470932e+01,
          2.01357613e+01, 5.13485489e+01, 5.04936295e+01 ]
      - [ -5.48651600e+00, 1.45885019e+01, -3.78769417e+01,
          3.61536522e+01, -3.24971428e+01, 1.21473068e+02 ]
      - [ -4.33169812e-01, 2.29688138e-01, -1.74656332e-01,
          9.12118051e-03, -4.86925751e-01, 2.83633530e-01 ]
      - [ 2.12657337e+01, 1.27744932e+01, 8.50523987e+01, 1.50086937e+01,
          5.50066338e+01, 1.08474846e+02 ]
      - [ -1.89024010e+01, 1.03818617e+01, 7.90963821e+01,
          7.12710667e+00, 5.10174484e+01, 4.46294060e+01 ]
      - [ -1.73464947e+01, 5.93407106e+00, -4.07929192e+01,
          4.61747456e+00, -6.99496174e+00, 1.96941330e+02 ]
      - [ -2.09886780e+01, 1.51330919e+01, 8.51770706e+01,
          6.43839884e+00, 5.61155281e+01, 4.12669067e+01 ]
      - [ -1.97861099e+01, 1.92765942e+01, 8.69845810e+01,
          6.57976246e+00, 6.11635742e+01, 5.84557838e+01 ]
      - [ 7.06302929e+00, 2.23450756e+01, -4.63281097e+01,
          1.52044687e+01, 7.28719807e+00, 8.90102844e+01 ]
      - [ -5.30119801e+00, 1.71522999e+01, -3.68448753e+01,
          3.59479027e+01, -3.21486549e+01, 1.20804939e+02 ]
      - [ 2.51554430e-01, 4.75730598e-02, 4.86785859e-01, 1.67815223e-01,
          4.68852758e-01, 1.95056036e-01 ]
      - [ 1.55723572e-01, 1.13302155e+02, -3.80362625e+01,
          3.54152145e+01, -3.11567593e+01, 1.10090469e+02 ]
      - [ 2.26616707e+01, 1.34918947e+01, 8.46276245e+01, 1.15465069e+01,
          5.69552040e+01, 1.16908752e+02 ]
      - [ 5.00631034e-01, 3.46818343e-02, -4.52281952e-01,
          3.43056917e-02, -3.86259645e-01, 2.33873017e-02 ]
      - [ -6.30363464e+00, 1.65109367e+01, -3.81599159e+01,
          3.43351517e+01, -3.24674187e+01, 1.22190926e+02 ]
      - [ -3.34447801e-01, 3.06332409e-01, -1.29458293e-01,
          8.73387977e-03, -3.83954585e-01, 3.78924727e-01 ]
      - [ 1.30710144e+01, 2.40654926e+01, -4.08138695e+01,
          2.66974621e+01, -3.25220642e+01, 6.87574921e+01 ]
      - [ 2.53252685e-01, 8.65655994e+00, 4.77807254e-01, 1.26434870e+01,
          3.30242544e-01, 1.68228741e+01 ]
      - [ -1.85904713e+01, 7.33928394e+00, 7.72851563e+01,
          6.61639881e+00, 4.81573563e+01, 2.68650932e+01 ]
      - [ 7.73384380e+00, 2.32980423e+01, -4.60005798e+01,
          1.43482065e+01, 6.80731964e+00, 8.56004944e+01 ]
      - [ -5.94929361e+00, 1.95260983e+01, -3.77031174e+01,
          3.39526901e+01, -3.27235527e+01, 1.21701180e+02 ]
      - [ -2.53978586e+00, 1.91421490e+01, -3.60323410e+01,
          3.68563461e+01, -3.31358337e+01, 1.03519974e+02 ]
      - [ 4.00649118e+00, 2.24570770e+01, -4.58080521e+01,
          1.57196980e+01, 8.36082268e+00, 1.02795692e+02 ]
      - [ 2.14562569e+01, 1.29483137e+01, 8.48396072e+01, 1.55546017e+01,
          5.45457611e+01, 1.00608192e+02 ]
      - [ 1.30871992e+01, 2.01401672e+01, -4.48952599e+01,
          1.51439543e+01, 5.22739267e+00, 6.77839203e+01 ]
      - [ 2.20494175e+01, 1.35595980e+01, 8.42575989e+01, 1.42571936e+01,
          5.61826363e+01, 1.23250076e+02 ]
      - [ 6.51480103e+00, 2.04134026e+01, -4.59629517e+01,
          1.56273308e+01, 8.31157684e+00, 9.32308350e+01 ]
      - [ 6.60809934e-01, 8.31451360e-03, -1.99365437e-01,
          1.91673152e-02, -2.19295338e-01, 1.53680835e-02 ]
      - [ 2.03674145e+01, 1.27771254e+01, 8.46595535e+01, 1.61642456e+01,
          5.41036453e+01, 1.01937042e+02 ]
      - [ -1.82131958e+01, 9.49300003e+00, -4.01030731e+01,
          3.62883759e+00, -3.10008550e+00, 1.78200195e+02 ]
      - [ 1.67800789e+01, 4.00449295e+01, -4.38446159e+01,
          1.39756031e+01, -1.19171298e+00, 1.50689789e+02 ]
      - [ -1.83324909e+01, 1.68557091e+01, 8.14134598e+01,
          6.55854177e+00, 5.35248146e+01, 4.29704247e+01 ]
      - [ 2.28621216e+01, 8.49456024e+00, 8.44258041e+01, 9.20090103e+00,
          5.61749344e+01, 1.17317871e+02 ]
      - [ -1.79374847e+01, 1.01215048e+01, 7.88790131e+01,
          7.44188404e+00, 4.96088142e+01, 2.98892746e+01 ]
      - [ -1.46521559e+01, 3.48957214e+01, -3.93183975e+01,
          1.90745258e+01, -1.48492632e+01, 3.52828064e+02 ]
      - [ 2.12692986e+01, 1.51461296e+01, 8.18790817e+01, 2.30511494e+01,
          5.11578827e+01, 1.19103065e+02 ]
      - [ -1.79838657e+01, 1.02406206e+01, -3.74837494e+01,
          4.14619493e+00, -2.84350133e+00, 1.65571289e+02 ]
      - [ -1.33006077e+01, 9.32369232e+01, -4.20357819e+01,
          1.09509888e+01, -2.41284800e+00, 1.83747467e+02 ]
      - [ 1.24682617e+00, 2.74735985e+01, 8.27013855e+01, 3.91123581e+01,
          3.76314240e+01, 6.28875504e+01 ]
      - [ -7.81264007e-02, 6.91214705e+00, 9.58175373e+00,
          1.26424198e+01, 2.92633295e-01, 1.45142078e+01 ]
      - [ 4.14527148e-01, 2.09659804e-02, 4.48938906e-01, 9.28945467e-03,
          5.76467931e-01, 2.22718772e-02 ]
      - [ 3.09401482e-01, 6.20443095e-03, -5.44192076e-01,
          1.10225258e-02, -6.35960937e-01, 4.79249982e-03 ]
      - [ 1.03826642e+00, 2.59329185e+01, -8.57910961e-02,
          1.15787401e+01, 9.24928114e-02, 5.10238838e+01 ]
      - [ 1.06508331e+01, 3.86159248e+01, 4.25377995e-01, 1.02586613e+01,
          9.46454525e-01, 5.10259361e+01 ]
      - [ -2.99386177e+01, 1.66346531e+01, -3.00757523e+01,
          1.80182266e+01, 4.00796509e+00, 1.59306015e+02 ]
      - [ 8.63439739e-01, 4.23473511e+01, -5.11640310e-01,
          1.34519234e+01, -7.33224750e-02, 5.57211418e+01 ]
      - [ -3.33512947e-02, 1.11303349e+01, -7.19799578e-01,
          1.46555567e+01, 3.11340719e-01, 1.49529362e+01 ]
      - [ -8.88085747e+00, 4.03573341e+01, -2.73398247e+01,
          8.09629898e+01, 2.08259239e+01, 1.72194443e+02 ]
      - [ 3.22421885e+00, 5.86290131e+01, -1.49504070e+01,
          5.31696968e+01, 1.02232380e+01, 9.62395401e+01 ]
      - [ 5.87367868e+00, 7.23229065e+01, -1.73947029e+01,
          2.40373936e+01, 9.68708324e+00, 1.07674538e+02 ]
      - [ -3.05197906e+01, 3.01052208e+01, 1.78888702e+00,
          3.15026436e+01, -1.71423588e+01, 5.84426727e+01 ]
      - [ 2.87535548e+00, 3.17686176e+01, -1.56763811e+01,
          1.71232548e+01, 1.07646208e+01, 6.63004761e+01 ]
      - [ 8.88213456e-01, 3.59148521e+01, -7.84650922e-01,
          9.26518440e+00, -1.54175997e-01, 6.40625687e+01 ]
      - [ 7.69849867e-02, 7.22521544e+00, 9.82938194e+00, 3.73467064e+01,
          5.28405368e-01, 4.00119896e+01 ]
      - [ -2.83976593e+01, 1.44912605e+01, -1.62021217e+01,
          7.13129425e+01, -1.59544325e+01, 8.86854248e+01 ]
      - [ 2.17250748e+01, 3.40778084e+01, -2.02974720e+01,
          1.61761875e+01, 2.56865072e+00, 9.78898926e+01 ]
      - [ -2.95014954e+01, 1.27084436e+01, -1.25139790e+01,
          5.77284164e+01, -1.10311098e+01, 9.16512680e+01 ]
      - [ 1.07358570e+01, 4.78058891e+01, 1.45961106e-01, 1.04350338e+01,
          6.16177261e-01, 6.63107224e+01 ]
      - [ 2.60902882e-01, 7.46721542e-03, 5.59984863e-01, 3.46263242e-03,
          7.16016471e-01, 8.81602801e-03 ]
      - [ 1.15804374e+00, 3.66832733e+01, -9.48429644e-01,
          9.88553047e+00, -3.24811012e-01, 5.71538620e+01 ]
      - [ 1.06414595e+01, 2.77260303e+01, -4.01292354e-01,
          7.38285685e+00, 8.59850585e-01, 3.66195641e+01 ]
      - [ 9.48183477e-01, 3.75828705e+01, -8.21228147e-01,
          1.09569130e+01, -1.06344618e-01, 5.37590141e+01 ]
      - [ 7.66773582e-01, 3.05913830e+01, -1.45201296e-01,
          1.12992249e+01, -1.52975228e-02, 5.82579994e+01 ]
      - [ 5.51742554e-01, 8.40615654e+00, 9.73199654e+00, 3.25777969e+01,
          4.08475339e-01, 4.09519424e+01 ]
      - [ 1.05208397e+01, 3.27283669e+01, 6.97650015e-01, 7.61582518e+00,
          8.03116322e-01, 5.55917702e+01 ]
      - [ 1.04293394e+00, 4.65018196e+01, -6.28581643e-01,
          1.05522575e+01, -2.73030400e-01, 6.08370132e+01 ]
      - [ 1.03082218e+01, 2.98025379e+01, 2.26255584e+00, 8.83958912e+00,
          9.06512022e-01, 5.27532082e+01 ]
      - [ -3.21696472e+01, 1.64060364e+01, 8.33411694e+00,
          2.57916584e+01, -1.00971603e+01, 4.89933701e+01 ]
      - [ 1.06769609e+01, 3.47808304e+01, 1.14327148e-01, 7.65490866e+00,
          9.85034704e-01, 7.14197998e+01 ]
      - [ -2.60690594e+00, 8.27802181e+00, 7.81867027e+00,
          5.36996412e+00, 1.82085359e+00, 1.42156773e+01 ]
      - [ 1.07910910e+01, 3.53296547e+01, 4.35484380e-01, 8.13072109e+00,
          8.09111476e-01, 5.18410263e+01 ]
      - [ -2.96756058e+01, 1.26200638e+01, -1.26166134e+01,
          5.37427864e+01, -1.11209869e+01, 9.42385559e+01 ]
      - [ -2.84840622e+01, 2.23024597e+01, 7.20418072e+00,
          2.33168812e+01, -1.00250187e+01, 5.43647614e+01 ]
      - [ 6.85952067e-01, 7.99512911e+00, 9.80927181e+00, 2.63499908e+01,
          1.87494069e-01, 3.14631081e+01 ]
      - [ -4.43283844e+01, 3.67398190e+00, 4.17649364e+00,
          1.41351271e+01, 4.16107215e-02, 8.76895676e+01 ]
      - [ 1.25965253e-01, 1.34038293e+00, -3.59476298e-01,
          1.49628496e+00, 1.22495517e-01, 9.15324986e-01 ]
      - [ -1.13740587e+01, 2.44029808e+01, -3.65680962e+01,
          1.12877655e+01, 1.33919325e+01, 2.44041489e+02 ]
      - [ -2.92813473e+01, 4.37500458e+01, -2.11043301e+01,
          1.08249939e+02, -2.49037027e+00, 2.61262238e+02 ]
      - [ 2.30531365e-01, 6.48575556e-03, 6.03901029e-01, 4.11312236e-03,
          7.06364870e-01, 8.23617447e-03 ]
      - [ 8.41840982e-01, 3.97942810e+01, -2.49760166e-01,
          1.28849239e+01, 8.01889226e-03, 5.91288109e+01 ]
      - [ 3.61198568e+00, 3.25769653e+01, -1.62333279e+01,
          1.91977158e+01, 1.15514421e+01, 7.08653336e+01 ]
      - [ 1.05282679e+01, 3.02217140e+01, -5.15726924e-01,
          7.57850170e+00, 6.94971740e-01, 3.73533058e+01 ]
      - [ 6.66069412e+00, 1.18927984e+01, 5.02759552e+00, 1.05782480e+01,
          7.55169913e-02, 4.05207443e+00 ]
      - [ 7.71026802e+00, 1.17937536e+01, 1.11838531e+00, 8.03310108e+00,
          2.15030742e+00, 1.10206909e+01 ]
      - [ 5.62155676e+00, 2.93358288e+01, 2.19558549e+00, 1.83046131e+01,
          2.64573431e+00, 2.78377514e+01 ]
      - [ 1.07061081e+01, 3.67192345e+01, 1.60561532e-01, 7.71866131e+00,
          8.70584488e-01, 6.39669380e+01 ]
      - [ 2.47042969e-01, 1.21073284e+01, 7.95074606e+00, 2.56914997e+00,
          1.69845629e+00, 1.53337603e+01 ]
      - [ 2.80171931e-01, 7.70832412e-03, 5.70061743e-01, 3.69354431e-03,
          6.96590602e-01, 9.17725544e-03 ]
      - [ 1.75250359e+01, 5.19974861e+01, -1.89009285e+01,
          2.39353676e+01, 5.53628540e+00, 9.33325882e+01 ]
      - [ 8.66654932e-01, 3.99858437e+01, -7.57477343e-01,
          8.92313671e+00, -4.45840448e-01, 5.94224701e+01 ]
      - [ -3.21798325e+01, 1.84224567e+01, 7.93513966e+00,
          2.53548164e+01, -1.07186298e+01, 4.59425392e+01 ]
      - [ 1.01118631e+01, 2.23812523e+01, 1.89573646e+00, 6.19088268e+00,
          4.84253168e-01, 2.33900223e+01 ]
      - [ -3.46402512e+01, 3.64492111e+01, 5.12121439e+00,
          2.73268623e+01, -1.56396694e+01, 6.80279236e+01 ]
      - [ -1.65468752e+00, 4.08300049e+02, -4.10839920e+01,
          3.22780495e+01, 1.48419642e+00, 2.43620529e+02 ]
      - [ -2.13999443e+01, 7.87125122e+02, 2.97247624e+00,
          1.38368179e+02, -4.68207073e+00, 4.31902863e+02 ]
      - [ 3.17260474e-01, 6.98954582e+00, 9.82092094e+00, 2.32199306e+01,
          2.88379073e-01, 3.12093201e+01 ]
      - [ 9.99128163e-01, 5.10309868e+01, -1.10331380e+00,
          1.32374306e+01, -2.70155132e-01, 6.97519836e+01 ]
      - [ 3.71241617e+00, 9.04688950e+01, -1.32248363e+01,
          9.86212845e+01, 2.72167659e+00, 4.53135712e+02 ]
      - [ 8.34247172e-01, 1.99479504e+01, -3.39738458e-01,
          1.18609228e+01, -1.61701813e-01, 2.81010704e+01 ]
      - [ 1.08297634e+01, 3.67326431e+01, 1.52650490e-01, 9.58041859e+00,
          1.05103707e+00, 6.16520233e+01 ]
      - [ 2.45087668e-01, 1.92693977e+01, -6.68408275e-01,
          7.16315031e+00, -3.22647363e-01, 2.77219830e+01 ]
      - [ 2.35568690e+00, 3.20098648e+01, -1.49908543e+01,
          1.66780796e+01, 1.04540272e+01, 6.05730400e+01 ]
      - [ -3.16187820e+01, 2.04567471e+01, 1.56970370e+00,
          3.23760185e+01, -1.55123272e+01, 4.09328461e+01 ]
      - [ 2.85203409e+00, 4.04319916e+01, -1.49128523e+01,
          1.49430389e+01, 1.17621794e+01, 5.44169350e+01 ]
      - [ -2.82450485e+01, 8.43714333e+00, -1.81683025e+01,
          3.22822418e+01, 4.94668865e+00, 1.72193344e+02 ]
      - [ -1.29855406e+00, 9.22966003e+00, 7.36344481e+00,
          6.36243486e+00, 2.90716410e+00, 1.75760536e+01 ]
      - [ -3.12692852e+01, 2.75522671e+01, 2.11412501e+00,
          3.27814178e+01, -1.66153851e+01, 5.39900360e+01 ]
      - [ 1.18022001e+00, 4.25593414e+01, -4.70977038e-01,
          1.05108461e+01, -5.69000006e-01, 5.05941315e+01 ]
      - [ -2.79866219e+01, 1.99828091e+01, -1.15977631e+01,
          7.05052872e+01, -9.64319897e+00, 1.05661209e+02 ]
      - [ 7.49811113e-01, 6.87520742e+00, 9.82873821e+00, 2.83651829e+01,
          3.66183907e-01, 3.68211899e+01 ]
      - [ -3.20027962e+01, 2.81876240e+01, 4.66618204e+00,
          2.69859219e+01, -1.42884140e+01, 6.66524353e+01 ]
      - [ 1.05674534e+01, 2.78387241e+01, -5.64287007e-01,
          6.29613781e+00, 8.96673083e-01, 3.92486076e+01 ]
      - [ -2.96140862e+01, 1.23672819e+01, -1.15465956e+01,
          1.10267456e+02, 1.53961916e+01, 2.29228531e+02 ]
      - [ 1.17512941e+00, 8.15941620e+00, 9.80558777e+00, 3.74292717e+01,
          2.25112185e-01, 3.91325607e+01 ]
      - [ -2.48872185e+01, 2.04114532e+01, -1.70306816e+01,
          5.14308281e+01, 1.74453983e+01, 1.18347672e+02 ]
      - [ 1.05994768e+01, 2.66253128e+01, -3.68739486e-01,
          7.85347509e+00, 6.67566657e-01, 3.58555222e+01 ]
      - [ 9.89419580e-01, 3.59349365e+01, -8.73495579e-01,
          6.54243946e+00, -4.04667348e-01, 5.72423096e+01 ]
      - [ 1.05958939e+00, 8.39512634e+00, 9.82132626e+00, 3.43496704e+01,
          2.52819330e-01, 3.97863693e+01 ]
      - [ 9.72028255e-01, 4.25127831e+01, -3.60492498e-01,
          9.05257893e+00, -4.11321580e-01, 7.99106750e+01 ]
      - [ -4.13852768e+01, 2.30763054e+01, -1.89347839e+00,
          1.33419128e+02, -2.10444450e+01, 9.87246475e+01 ]
      - [ 3.91196162e-01, 1.57549658e+01, -7.92180479e-01,
          5.85206985e+00, 1.30121976e-01, 2.27969723e+01 ]
      - [ 9.24107909e-01, 3.58861542e+01, -5.86295843e-01,
          9.11014175e+00, -3.44147354e-01, 5.46547852e+01 ]
      - [ 6.81804836e-01, 2.32127399e+01, -2.35315441e-04,
          8.29309177e+00, -1.32791787e-01, 2.61313419e+01 ]
      - [ 4.71474457e+00, 1.42324371e+02, -1.83299541e+01,
          1.80706196e+01, 7.69398499e+00, 8.36647110e+01 ]
      - [ 5.74841166e+00, 1.93811401e+02, -3.66760178e+01,
          1.94306278e+01, -1.26125126e+01, 6.67120590e+01 ]
      - [ -2.43211594e+01, 1.09462051e+02, -3.01676989e-01,
          4.08713501e+02, 1.14833527e+01, 4.01966858e+02 ]
      - [ -3.20352173e+01, 1.96407261e+01, 5.49026489e+00,
          2.86671944e+01, -1.33687992e+01, 4.62777290e+01 ]
      - [ -5.94851859e-02, 1.69810886e+01, 7.64406776e+00,
          9.85721588e+00, 2.40272689e+00, 1.96333561e+01 ]
      - [ -2.73589468e+00, 4.74289656e+00, 8.15473938e+00,
          3.93672156e+00, 1.22092211e+00, 1.20152168e+01 ]
      - [ 6.96384573e+00, 2.53279953e+01, 5.24051094e+00, 1.74814548e+01,
          -9.64786950e-03, 1.54701662e+01 ]
      - [ 1.00834322e+00, 3.38590584e+01, -6.89222217e-01,
          8.61067009e+00, -4.79253441e-01, 5.77850266e+01 ]
      - [ 1.07042761e+01, 3.49535332e+01, 1.65230319e-01, 9.33074951e+00,
          1.16812479e+00, 5.65939407e+01 ]
      - [ 7.52598953e+00, 1.38034658e+01, 1.22903752e+00, 9.95247936e+00,
          6.98472738e-01, 1.37755251e+01 ]
      - [ 1.04821110e+01, 3.79417458e+01, 9.80547905e-01, 9.30763626e+00,
          8.30815673e-01, 6.40997391e+01 ]
      - [ -1.66729164e+00, 7.16998196e+00, 7.79892731e+00,
          5.51785421e+00, 2.33194256e+00, 1.44414654e+01 ]
      - [ -2.79096127e+01, 8.61019421e+00, -1.65960045e+01,
          5.77324295e+01, -5.03887177e+00, 1.66959137e+02 ]
      - [ 1.10891676e+00, 3.96738396e+01, -7.90371716e-01,
          1.04426498e+01, -3.55263472e-01, 5.02520409e+01 ]
      - [ 1.05124550e+01, 2.67267723e+01, 5.11867106e-01, 6.42378998e+00,
          5.53956985e-01, 3.43234863e+01 ]
      - [ -4.19794540e+01, 1.65704746e+01, 6.59904623e+00,
          6.80322266e+01, -1.04357700e+01, 1.95328827e+02 ]
      - [ 9.61169529e+00, 2.51366596e+01, 3.72832417e+00, 1.08834715e+01,
          4.82154876e-01, 4.25787926e+01 ]
      - [ -2.91522465e+01, 8.15450001e+00, -1.47159882e+01,
          4.47819901e+01, -1.05082731e+01, 7.95004730e+01 ]
      - [ 7.65127242e-01, 1.17206850e+01, 8.25356293e+00, 3.31333504e+01,
          2.33837843e+00, 4.15432472e+01 ]
      - [ 4.38670248e-01, 1.14549650e-02, 4.38299447e-01, 3.48082883e-03,
          5.58019221e-01, 1.39360484e-02 ]
      - [ 1.04536715e+01, 1.98554459e+01, 1.11844707e+00, 7.92449284e+00,
          7.27501512e-01, 2.25878925e+01 ]
      - [ -3.14310341e+01, 3.13367691e+01, 1.96988070e+00,
          3.65855446e+01, -1.60338726e+01, 6.78009872e+01 ]
      - [ 8.79342675e-01, 3.69389763e+01, -5.33088565e-01,
          9.76492596e+00, -4.86668080e-01, 8.20544510e+01 ]
      - [ 5.71668530e+00, 6.76235046e+01, -1.72684555e+01,
          2.14515858e+01, 9.85608196e+00, 9.10068970e+01 ]
      - [ 8.52266192e-01, 2.67731304e+01, -5.50180614e-01,
          1.04846106e+01, -3.09375495e-01, 3.84485359e+01 ]
      - [ 2.36973305e+01, 1.05403481e+01, -3.94655380e+01,
          7.65217257e+00, -2.15259743e+01, 4.19196358e+01 ]
      - [ 3.63276660e-01, 1.15253134e-02, 5.93526840e-01, 1.25876283e-02,
          6.29855156e-01, 7.94641580e-03 ]
      - [ 2.70216107e-01, 4.97589397e+00, 1.56763658e-01, 1.12946396e+01,
          -3.83969337e-01, 7.83393860e+00 ]
      - [ 2.23033905e-01, 6.55757284e+00, 5.86531088e-02, 1.05843058e+01,
          -3.02232444e-01, 6.70017195e+00 ]
      - [ 6.26002550e-01, 1.22184269e-02, -1.55995131e-01,
          1.49188554e-02, 7.02331066e-01, 6.27838215e-03 ]
      - [ 7.40901157e-02, 8.27653520e-03, -5.96159399e-01,
          1.57864094e-01, -5.41876137e-01, 1.44064009e-01 ]
      - [ 1.73262835e-01, 8.98641646e-02, 1.68262661e-01, 2.32907519e-01,
          3.64712179e-01, 3.85069937e-01 ]
      - [ 1.36270687e-01, 1.54933054e-02, -6.38795733e-01,
          6.99744523e-02, -5.85172236e-01, 5.83874099e-02 ]
      - [ 7.34855682e-02, 4.20340824e+00, 1.21269010e-01, 1.06624355e+01,
          -3.12634110e-01, 7.12830591e+00 ]
      - [ -3.36807370e-02, 2.82256675e+00, 1.49976447e-01,
          3.75003552e+00, -1.14125974e-01, 8.80412936e-01 ]
      - [ 6.60809934e-01, 8.31451360e-03, -1.99365437e-01,
          1.91673152e-02, -2.19295338e-01, 1.53680835e-02 ]
      - [ -2.74996966e-01, 1.36908662e+00, 9.52557850e+00,
          4.18811999e-02, -7.64564499e-02, 3.94130635e+00 ]
      - [ 2.97482282e-01, 4.02789593e+00, 1.97625220e-01, 1.03941927e+01,
          -1.48158520e-01, 6.47181320e+00 ]
      - [ 5.31852901e-01, 1.05866548e-02, 3.49948674e-01, 2.19555432e-03,
          4.34205920e-01, 1.33571969e-02 ]
      - [ 6.04752779e-01, 8.14967323e-03, 3.35941613e-02, 1.49595663e-02,
          1.06249042e-01, 2.58408878e-02 ]
      - [ 6.26194954e-01, 5.56377508e-03, -1.41566351e-01,
          1.13910604e-02, -1.53150037e-01, 1.39691988e-02 ]
      - [ 6.23832822e-01, 4.63789422e-03, -1.68054968e-01,
          6.19923696e-03, -1.84928566e-01, 4.02070116e-03 ]
      - [ 5.53266287e-01, 3.24711250e-03, -3.02125394e-01,
          8.78098328e-03, -3.18877906e-01, 3.73381469e-03 ]
      - [ 5.74750423e-01, 1.02496529e-02, 2.27477118e-01, 2.33106669e-02,
          2.95275807e-01, 3.29734236e-02 ]
      - [ 6.29251719e-01, 6.63169753e-03, -8.60780254e-02,
          3.99482809e-03, -5.64521439e-02, 5.80482837e-03 ]
      - [ 3.43361437e-01, 5.46804746e-04, -5.17521083e-01,
          1.11146811e-02, -6.16520286e-01, 1.13991008e-03 ]
      - [ 5.49476683e-01, 1.04957093e-02, 3.29301566e-01, 1.21274625e-03,
          4.19791490e-01, 1.19154807e-02 ]
      - [ 5.62928259e-01, 2.94746435e-03, -2.79581428e-01,
          7.69617129e-03, -2.93444395e-01, 3.36651830e-03 ]
      - [ 6.38868690e-01, 7.20540388e-03, 1.19944625e-02, 5.77450916e-03,
          3.62348817e-02, 1.07336454e-02 ]
      - [ 3.93777728e-01, 9.31558316e-04, -5.07542253e-01,
          9.66038741e-03, -5.70763409e-01, 1.30148954e-03 ]
      - [ 5.67012906e-01, 2.57351925e-03, -3.07875961e-01,
          7.79072149e-03, -3.44962925e-01, 2.15924624e-03 ]
      - [ 1.22483440e-01, 8.15164484e-03, 4.92375731e-01, 1.54105127e-01,
          5.61740220e-01, 2.48273969e-01 ]
      - [ 6.28374755e-01, 5.92090376e-03, -1.04745969e-01,
          5.34724910e-03, -8.88105333e-02, 5.80982631e-03 ]
      - [ -2.78312534e-01, 1.58194857e+01, -6.48329258e-01,
          1.45568981e+01, -5.06231904e-01, 1.61315632e+01 ]
      - [ 2.19837532e+01, 4.14730692e+00, -4.30386887e+01,
          7.09416485e+00, -2.32010269e+01, 4.27892876e+01 ]
      - [ 2.17093163e+01, 4.52823114e+00, -4.30923386e+01,
          7.30525255e+00, -2.32915993e+01, 4.47747955e+01 ]
      - [ 2.48362467e-01, 7.50113821e+00, 2.77566135e-01, 1.83544979e+01,
          -3.76772761e-01, 1.20995283e+01 ]
      - [ 4.91597563e-01, 6.85430908e+00, 9.39067268e+00, 1.98259563e+01,
          1.50159824e+00, 1.09080992e+01 ]
      - [ 4.73270640e-02, 1.76105938e+01, -5.89057505e-01,
          2.00517864e+01, -6.70642495e-01, 1.75695477e+01 ]
      - [ 2.93462694e-01, 7.87893391e+00, 1.78575844e-01, 2.29210033e+01,
          -5.14829874e-01, 1.13874302e+01 ]
      - [ -1.87617064e-01, 1.81704006e+01, -5.69632232e-01,
          2.07217197e+01, -4.72440302e-01, 1.53833494e+01 ]
      - [ 3.35783601e-01, 1.46290398e+01, -1.00456934e+01,
          2.24649162e+01, 9.88899350e-01, 1.75005322e+01 ]
      - [ 2.29447752e-01, 5.45197821e+00, 1.75823301e-01, 2.25258713e+01,
          -1.89200670e-01, 1.11606178e+01 ]
      - [ 2.30266628e+01, 5.32161617e+00, -4.14530792e+01,
          8.39371872e+00, -2.31587200e+01, 4.66419106e+01 ]
      - [ 1.92446500e-01, 7.51085711e+00, 1.54961959e-01, 2.37026501e+01,
          -2.93903559e-01, 9.84604359e+00 ]
      - [ 2.30466881e+01, 7.39339972e+00, -4.15454025e+01,
          9.07384682e+00, -2.11399288e+01, 4.55944939e+01 ]
      - [ -3.40514816e-02, 1.32402837e+00, -4.37772684e-02,
          1.19705617e+00, 5.28063811e-02, 7.86072671e-01 ]
      - [ -2.01971188e+01, 1.72367325e+01, 8.45741501e+01,
          9.14139080e+00, 5.95508423e+01, 4.26458168e+01 ]
      - [ -2.37782802e-02, 2.01243877e+01, -7.22226679e-01,
          1.86241798e+01, -4.57203954e-01, 1.94768238e+01 ]
      - [ 3.58667791e-01, 8.18368244e+00, 9.42231274e+00, 2.12042599e+01,
          1.42677104e+00, 1.10350637e+01 ]
      - [ 2.49594729e-02, 1.49075470e+01, -5.80717504e-01,
          1.50177670e+01, -4.59979028e-01, 1.59530230e+01 ]
      - [ -5.57983406e-02, 1.40866842e+01, -4.68252599e-01,
          1.35149755e+01, -6.88153446e-01, 1.45005713e+01 ]
      - [ 1.19899444e-01, 1.23749676e+01, -4.59864616e-01,
          1.78481998e+01, -6.01500511e-01, 1.62563801e+01 ]
      - [ 2.28420601e+01, 4.25842905e+00, -4.16883125e+01,
          6.52200222e+00, -2.16611595e+01, 4.25638733e+01 ]
      - [ 1.37791738e-01, 4.90792608e+00, 4.46177050e-02, 2.04376545e+01,
          -4.03122067e-01, 1.27951298e+01 ]
      - [ -2.18131886e+01, 1.72357426e+01, 8.35309448e+01,
          9.06010437e+00, 6.00026703e+01, 4.51228142e+01 ]
      - [ -2.05825386e+01, 1.50786543e+01, 8.57722626e+01,
          6.88902378e+00, 5.80847893e+01, 4.42351456e+01 ]
      - [ -2.00067635e+01, 1.47126656e+01, 8.63780899e+01,
          6.51579666e+00, 6.01909943e+01, 4.59903564e+01 ]
      - [ 2.68702418e-01, 5.00357723e+00, 9.44355774e+00, 1.94647541e+01,
          1.31652427e+00, 1.32837620e+01 ]
      - [ 2.91476585e-02, 1.36612070e+00, -3.21853161e-01,
          1.14154172e+00, 1.72158122e-01, 6.81934237e-01 ]
      - [ -1.67875195e+01, 6.00212097e+00, -3.83561821e+01,
          1.67531052e+01, -2.05501137e+01, 1.70436981e+02 ]
      - [ -1.61906451e-01, 2.02395287e+01, -7.57642150e-01,
          1.99620228e+01, -5.00570655e-01, 1.79570618e+01 ]
      - [ -1.32283360e-01, 2.02680912e+01, -7.55919874e-01,
          2.55793591e+01, -5.00966907e-01, 2.20772038e+01 ]
      - [ 2.81582773e-01, 4.47449684e+00, 1.85140371e-01, 1.70261860e+01,
          -2.76635945e-01, 1.18255234e+01 ]
      - [ -1.73125014e-01, 1.41378756e+01, -5.13868809e-01,
          1.64687443e+01, -2.72767872e-01, 1.42431679e+01 ]
      - [ 4.06467080e-01, 8.84305382e+00, 1.68624014e-01, 1.71819859e+01,
          -3.49673182e-01, 1.07288342e+01 ]
      - [ -2.39081651e-01, 1.07896175e+01, -9.96339035e+00,
          1.83902588e+01, 1.09547102e+00, 1.22699375e+01 ]
      - [ 2.13541145e+01, 5.98534584e+00, -4.28125381e+01,
          8.95166874e+00, -2.38625507e+01, 4.71254387e+01 ]
      - [ 4.16153252e-01, 6.96665478e+00, 2.31235698e-01, 1.70393391e+01,
          -2.06655100e-01, 7.12086916e+00 ]
      - [ -2.06732044e+01, 2.04293499e+01, 8.63306351e+01,
          5.32287264e+00, 5.86033859e+01, 5.23578911e+01 ]
      - [ 5.90450525e-01, 7.85772896e+00, 9.40208530e+00, 1.95889664e+01,
          1.43932009e+00, 1.02214832e+01 ]
      - [ -1.68432121e+01, 5.91613817e+00, -3.83367653e+01,
          1.60552559e+01, -2.16121025e+01, 1.64564072e+02 ]
      - [ 2.33344480e-01, 5.46446848e+00, 9.43676090e+00, 2.03762455e+01,
          1.35574186e+00, 1.16505766e+01 ]
      - [ -9.63128805e-02, 1.13667965e+01, -9.96754551e+00,
          1.38959923e+01, 1.17930412e+00, 1.10791607e+01 ]
   decision_functions:
      -
         sv_count: 341
         rho: 1.7275039287674172e-02
         alpha: [ 1., 2.4340151302479467e+00, 1.4217744191832651e+00,
             3.9215555779437361e-01, 6.1149844294292555e-01,
             1.0695061226041304e+02, 1.2690820178256856e+00,
             6.0585182056637343e+00, 1.2512501113098529e+00,
             7.2871147330862496e-01, 5.9797761569391161e-01,
             9.0142426611496873e-01, 6.4813331615492209e-01,
             8.8547113309778569e-01, 1.3680606086419145e+00,
             1.2755977214171936e+00, 1.3129869335188276e+00,
             1.3004185433971460e+00, 5.8229054207711795e-01,
             2.3214480928262358e+00, 9.6425013395562720e-01,
             1.0118773700948491e+00, 3.2729038657774834e-01,
             1.5446273621334561e+02, 6.4184582356196840e-01,
             5.9602583798204078e-01, 6.7190489800536324e-01,
             7.4787276535980740e-01, 1.2480698192055124e+00,
             6.2399015789835244e-01, 1.3447605938111913e+00,
             8.8787072427028502e-01, 4.0661489272349655e+01,
             1.0068804746596913e+00, 1.2582927071401506e+00,
             1.1424628959773075e+00, 1.2538341749815074e+00,
             1.2615112068487766e+00, 1.2443244968227740e+00,
             8.8165556553323898e-01, 2.1908341305671408e+02,
             1.2293741307011321e+00, 1.2773512055158849e+00,
             5.4993747690183514e-01, 1.0597661409069079e+00,
             9.9803438875064121e-01, 2.2906893802746073e+00,
             1.7014405084619508e+01, 1.2758354009858479e+00,
             1.2342414189541287e+01, 3.1288313420821845e-01,
             1.2663149853173845e+00, 7.3882872373076969e-01,
             1.1591300433756300e+00, 6.7855401485709632e-01,
             6.8051431000798512e-01, 9.7330787090156756e-01,
             1.3771754669735299e+00, 1.5349297991698788e+02,
             1.3542747325835751e+00, 1.3252919271456880e+00,
             1.3480771884492837e+00, 5.8520893731702939e-01,
             1.3112614048898097e+00, 1.2834923050313394e+00,
             1.3255568927838248e+00, 1.3212858752572259e+00,
             1.2282592089274509e+00, 1.2875276241050184e+00,
             1.2453993623609674e+00, 1.3129943231209142e+00,
             1.2812573506910674e+00, 1.2789270723208519e+00,
             1.2926318620785295e+00, 1.3351288162668564e+00,
             1.3308465527920039e+00, 1.2581474461841138e+00,
             1.3324834007934794e+00, 2.5277581284685060e+00,
             6.4498943822015065e-01, 1.3509273909188979e+00,
             7.6615115852196802e-01, 1.3045390537843504e+00,
             1.3045824717601251e+00, 1.2957402776816456e+00,
             1.2540249630949183e+00, 1.2976434101436947e+00,
             1.3059770542678093e+00, 1.3221085599241160e+00,
             1.2899040029448048e+00, 1.3190202366736878e+00,
             1.2624758944571879e+00, 1.2476184132602341e+00,
             1.1933825257539172e+00, 1.2994756295104044e+00,
             1.2920603316532451e+00, 1.2816681783936132e+00,
             1.2872815511907350e+00, 1.2388806472175724e+00,
             1.2397900053692497e+00, 1.5932494707786895e+00,
             1.2785842644772007e+00, 1.1521621179839834e+00,
             6.0834469218507459e-01, 1.2837354458749206e+00,
             1.2563712191056529e+00, 1.2469738868734481e+00,
             1.3810612268450313e+00, 1.2943949914347166e+00,
             1.2951645297670602e+00, 1.1271355167028412e+00,
             1.3194952598936958e+00, 1.2694545132038166e+00,
             1.3058951038984765e+00, 5.2882209307018391e-01,
             1.2947043808551810e+00, 1.2920404198457278e+00,
             1.2921264757685285e+00, 1.3327364181098567e+00,
             1.2832695371594549e+00, 1.2798506743547255e+00,
             1.2672903744836812e+00, 1.2883504740617615e+00,
             1.2423737928837411e+00, 1.2831628943037956e+00,
             1.9753038894857551e+02, 4.8097625176809387e+01,
             6.7039624814817778e-01, 5.5740867011052808e-01,
             1.0545718979696017e+00, 1.2348950076886300e+00,
             1.2827857383417216e+00, 4.1637224357235159e-01,
             1.0868228026706912e+00, 1.0223983676778157e+00,
             1.2448937033814405e+00, 1.3117809711009161e+00,
             1.2206068698523458e+00, 1.2348120499627453e+00,
             2.7646861660887976e+00, 5.4231810365227873e-01,
             1.2992869665632505e+00, 7.6910891221962352e+00,
             1.2596005097772871e+00, 1.2506674053933402e+00,
             1.0761034913653622e+00, 6.7823425983424857e-01,
             1.1664827749875659e+00, 1.2737817250509911e+00,
             1.2323017587878131e+00, 7.0537378033159648e-01,
             1.2939662203012234e+00, 1.2551678629484482e+00,
             1.2529914108773108e+00, 5.9259880175188184e-01,
             2.6086276823089300e+01, 2.5964583714198547e+01,
             1.2737325082882116e+00, 1.1680284150359848e+00,
             1.2221548702121661e+00, 1.2960225843552724e+00,
             1.2432070890684122e+00, 6.1448552541296741e-01,
             1.7402416235507326e+02, 1.2428753109232407e+00,
             1.2908240707274550e+00, 1.2641785262187009e+00,
             1.2801941637456689e+00, 8.6157146732219214e-01,
             1.2777166658271830e+00, 9.4759704299976999e-01,
             1.2837267348471677e+00, 2.2599532872920790e+01,
             1.4047300354592069e+00, 8.0979377457341006e-01,
             6.1167078600897729e-01, 5.4101647346539727e-01,
             2.5433357439151605e-01, 1.4973995772514991e+01,
             5.7519060297692697e+00, 3.1250000000000000e+02,
             5.6026285309008351e+01, 1.9091106873713599e+01,
             1.7121763638150597e+01, 2.4831128654733018e+01, -1.,
             -2.7658703407210417e-01, -1.2798061939664840e+00,
             -6.0526033355608244e-01, -5.5110134368440966e-01,
             -1.1612791706804022e+00, -7.0953054744346800e-01,
             -3.5784667856940644e-01, -1.1040786886503549e+00,
             -1.2520944131733014e+00, -7.0781759556274393e-01,
             -1.0602223653914231e+00, -1.0390680560023855e+00,
             -1.1933410906200723e+00, -1.2544216354382360e+00,
             -1.2872456591661581e+00, -2.2718754777525669e+00,
             -7.0640756621371881e-01, -1.3058462799505162e+00,
             -9.0968020029446306e-01, -5.5866570668794657e-01,
             -6.6254741737931899e-01, -4.3298567101314789e-01,
             -8.9667704310011416e+01, -1.2578475068212749e+00,
             -1.2602472600014536e+00, -1.1035999713697389e+00,
             -1.2810715512894801e+00, -1.3009589584779238e+00,
             -9.4516228836713867e-01, -1.2864144702457323e+00,
             -7.4379427064908921e+00, -9.7259885041699046e-01,
             -6.3979177248349095e-01, -3.1250000000000000e+02,
             -1.8842649918390290e+01, -2.8879874310667693e+00,
             -6.6967541909824946e-01, -6.9712358607683844e-01,
             -9.0400047597663530e+01, -1.2111149499896363e+00,
             -2.6294793719050333e+00, -7.1490708032925895e+01,
             -1.6723132064929644e+01, -1.2649031473509438e+00,
             -3.1250000000000000e+02, -6.6187108638811221e-01,
             -1.2887253493988005e+00, -1.2753646129064502e+00,
             -1.2936338015184481e+00, -1.2873663082542919e+00,
             -6.5595452067137217e-01, -7.0868905174416263e-01,
             -1.2217551471509434e+00, -6.8789769595399741e-01,
             -1.2782234129454655e+00, -1.2722264592159767e+00,
             -1.0988456892884508e+00, -1.2924976099706438e+00,
             -1.2614993640906988e+00, -1.2492747641797881e+00,
             -1.1919685557194899e+00, -1.2244934264107594e+00,
             -4.5193807627433558e-01, -1.2682479283403136e+00,
             -1.1392598354108472e+00, -4.9329214577509362e-01,
             -1.2927644942903658e+00, -1.2487047633598454e+00,
             -1.2520404086039032e+00, -1.2913124287678133e+00,
             -1.2654357042808317e+00, -3.4756436870216656e-01,
             -1.2633801755396119e+00, -1.2616015312567741e+00,
             -1.2806979398051519e+00, -1.2489165765262049e+00,
             -1.2969922673777532e+00, -2.7588615798240280e+01,
             -1.2905011738055683e+00, -1.2883491450887310e+00,
             -1.2569886169450148e+00, -1.2620286639453164e+00,
             -1.2086716289094863e+00, -1.2908298198982948e+00,
             -1.2947621028686958e+00, -1.2863360553992194e+00,
             -1.1414157924013850e+00, -1.2452170563179532e+00,
             -1.2757024871557450e+00, -1.2672492913194762e+00,
             -1.2554040827948707e+00, -1.2822658271752330e+00,
             -1.1942559337350933e+00, -1.1896723635430924e+00,
             -1.2636476428042640e+00, -6.5140597354309615e-01,
             -1.2686382873699185e+00, -1.3042537463436772e+00,
             -1.2253473422179684e+00, -2.0326863630867990e+02,
             -1.1495268429906464e+00, -1.2723064885632154e+00,
             -1.2621075154600683e+00, -4.2474228256050289e+01,
             -2.2076329240914376e+01, -1.0353716500128543e+02,
             -7.0637760942708752e+01, -4.0823831875131356e-01,
             -2.9992907634809194e+02, -9.2446061755553188e-01,
             -1.2880373599466193e+00, -1.2193165250219140e+00,
             -1.2643878301881326e+00, -3.3373164081843232e-01,
             -1.2213173395218879e+00, -7.2322906384230057e-01,
             -1.2323481304285973e+00, -1.2667385068433556e+00,
             -1.1257527371674922e+00, -1.2532760311450615e+00,
             -1.2358211775802319e+00, -1.2691698236130062e+00,
             -1.1951862204505559e+00, -1.2562986511118386e+00,
             -1.2869928685951169e+00, -1.2385161163040446e+00,
             -1.2531078151672856e+00, -1.2467265363470719e+00,
             -1.2523061024054076e+00, -1.2251898163976893e+00,
             -1.2399016322805956e+00, -1.2248079346535219e+00,
             -1.2383543604666905e+00, -1.2752463542724186e+00,
             -7.0594365305775808e-01, -4.9197974059695637e-01,
             -1.0116357279271444e+00, -1.2643330498721310e+00,
             -6.7818313909492645e-01, -1.2264356550866973e+00,
             -1.2805423174257955e+00, -1.2262773030685283e+00,
             -1.2545766117587516e+00, -1.2756661032263510e+00,
             -1.2803162843383513e+00, -1.0976488884119182e+00,
             -1.2196359488227699e+00, -1.2451475265139686e+00,
             -1.2785776983451429e+00, -1.2675378346401323e+00,
             -1.2701539697210706e+00, -1.2752481193656444e+00,
             -1.2643547873853900e+00, -1.2290030823852569e+00,
             -1.1804344100899931e+00 ]
         index: [ 0, 292, 2, 3, 4, 293, 7, 294, 10, 13, 14, 15, 17, 18,
             20, 21, 22, 23, 24, 295, 28, 30, 31, 32, 33, 34, 38, 39, 40,
             42, 43, 44, 296, 45, 46, 48, 50, 51, 53, 54, 55, 57, 59, 60,
             63, 64, 65, 297, 67, 69, 70, 72, 74, 77, 79, 81, 82, 83, 86,
             88, 89, 90, 91, 92, 93, 96, 97, 98, 99, 100, 101, 102, 103,
             104, 105, 106, 107, 108, 298, 111, 113, 114, 115, 116, 117,
             118, 119, 120, 121, 122, 123, 124, 125, 127, 128, 129, 130,
             131, 132, 133, 299, 135, 136, 138, 140, 142, 143, 144, 145,
             146, 147, 148, 149, 150, 152, 153, 154, 155, 156, 157, 158,
             159, 160, 161, 162, 164, 165, 300, 301, 302, 303, 170, 304,
             305, 306, 307, 308, 309, 310, 182, 311, 312, 313, 314, 315,
             316, 317, 318, 319, 320, 321, 322, 323, 324, 325, 326, 202,
             327, 328, 329, 330, 331, 332, 211, 333, 334, 335, 336, 337,
             338, 339, 340, 266, 272, 274, 275, 280, 284, 285, 286, 287,
             288, 289, 290, 291, 1, 5, 6, 8, 9, 11, 12, 16, 19, 25, 26,
             27, 29, 35, 36, 37, 41, 47, 49, 52, 56, 58, 61, 62, 66, 68,
             71, 73, 75, 76, 78, 80, 84, 85, 87, 94, 95, 109, 110, 112,
             126, 134, 137, 139, 141, 151, 163, 166, 167, 168, 169, 171,
             172, 173, 174, 175, 176, 177, 178, 179, 180, 181, 183, 184,
             185, 186, 187, 188, 189, 190, 191, 192, 193, 194, 195, 196,
             197, 198, 199, 200, 201, 203, 204, 205, 206, 207, 208, 209,
             210, 212, 213, 214, 215, 216, 217, 218, 219, 220, 221, 224,
             273, 232, 233, 222, 276, 277, 278, 279, 281, 282, 283, 234,
             235, 236, 237, 238, 239, 240, 225, 241, 242, 243, 244, 245,
             246, 247, 248, 249, 250, 251, 252, 253, 254, 255, 256, 226,
             257, 258, 259, 260, 261, 262, 263, 227, 264, 228, 265, 229,
             267, 268, 230, 269, 270, 271, 231, 223 ]
